digraph Tree {
node [shape=box, style="filled, rounded", color="black", fontname=helvetica] ;
edge [fontname=helvetica] ;
0 [label="age <= 14.5\ngini = 0.368\nsamples = 14385\nvalue = [17253, 5539]", fillcolor="#eda979"] ;
1 [label="sex <= 0.5\ngini = 0.142\nsamples = 5076\nvalue = [7433, 618]", fillcolor="#e78b49"] ;
0 -> 1 [labeldistance=2.5, labelangle=45, headlabel="True"] ;
2 [label="age <= 8.5\ngini = 0.095\nsamples = 2048\nvalue = [3078, 162]", fillcolor="#e68843"] ;
1 -> 2 ;
3 [label="hours-per-week <= 44.5\ngini = 0.026\nsamples = 1251\nvalue = [1965, 26]", fillcolor="#e5833c"] ;
2 -> 3 ;
4 [label="(...)", fillcolor="#C0C0C0"] ;
3 -> 4 ;
29 [label="(...)", fillcolor="#C0C0C0"] ;
3 -> 29 ;
36 [label="race <= 2.5\ngini = 0.194\nsamples = 797\nvalue = [1113, 136]", fillcolor="#e89051"] ;
2 -> 36 ;
37 [label="(...)", fillcolor="#C0C0C0"] ;
36 -> 37 ;
38 [label="(...)", fillcolor="#C0C0C0"] ;
36 -> 38 ;
81 [label="age <= 10.5\ngini = 0.172\nsamples = 3028\nvalue = [4355, 456]", fillcolor="#e88e4e"] ;
1 -> 81 ;
82 [label="capital-loss <= 42.0\ngini = 0.075\nsamples = 2006\nvalue = [3067, 125]", fillcolor="#e68641"] ;
81 -> 82 ;
83 [label="(...)", fillcolor="#C0C0C0"] ;
82 -> 83 ;
160 [label="(...)", fillcolor="#C0C0C0"] ;
82 -> 160 ;
163 [label="education <= 6.5\ngini = 0.325\nsamples = 1022\nvalue = [1288, 331]", fillcolor="#eca16c"] ;
81 -> 163 ;
164 [label="(...)", fillcolor="#C0C0C0"] ;
163 -> 164 ;
173 [label="(...)", fillcolor="#C0C0C0"] ;
163 -> 173 ;
258 [label="sex <= 0.5\ngini = 0.445\nsamples = 9309\nvalue = [9820, 4921]", fillcolor="#f2c09c"] ;
0 -> 258 [labeldistance=2.5, labelangle=-45, headlabel="False"] ;
259 [label="education-num <= 10.5\ngini = 0.283\nsamples = 2725\nvalue = [3642, 748]", fillcolor="#ea9b62"] ;
258 -> 259 ;
260 [label="capital-loss <= 45.5\ngini = 0.196\nsamples = 1973\nvalue = [2825, 349]", fillcolor="#e89151"] ;
259 -> 260 ;
261 [label="(...)", fillcolor="#C0C0C0"] ;
260 -> 261 ;
344 [label="(...)", fillcolor="#C0C0C0"] ;
260 -> 344 ;
345 [label="education-num <= 13.5\ngini = 0.441\nsamples = 752\nvalue = [817, 399]", fillcolor="#f2bf9a"] ;
259 -> 345 ;
346 [label="(...)", fillcolor="#C0C0C0"] ;
345 -> 346 ;
415 [label="(...)", fillcolor="#C0C0C0"] ;
345 -> 415 ;
426 [label="capital-gain <= 78.0\ngini = 0.481\nsamples = 6584\nvalue = [6178, 4173]", fillcolor="#f7d6bf"] ;
258 -> 426 ;
427 [label="education-num <= 11.5\ngini = 0.458\nsamples = 6088\nvalue = [6160, 3395]", fillcolor="#f3c6a6"] ;
426 -> 427 ;
428 [label="(...)", fillcolor="#C0C0C0"] ;
427 -> 428 ;
583 [label="(...)", fillcolor="#C0C0C0"] ;
427 -> 583 ;
682 [label="capital-gain <= 90.5\ngini = 0.044\nsamples = 496\nvalue = [18, 778]", fillcolor="#3e9fe6"] ;
426 -> 682 ;
683 [label="(...)", fillcolor="#C0C0C0"] ;
682 -> 683 ;
686 [label="(...)", fillcolor="#C0C0C0"] ;
682 -> 686 ;
}